{"input_weights": [[-0.6110973654685602, 0.14134759736364003, 0.3987098009773223, 0.39681279332415564, 0.5352559340847752, 0.7751826124286555, 0.8287334254601433, 0.3245699460930041, 0.11791361698334046, -0.8830390379866182], [0.9210276646150262, 0.9393118169445875, -0.4427694326691399, -0.6300305959534461, 0.08051250791442705, 0.317741256308952, 0.22079068214593395, -0.8486885169196852, 0.4950184080170963, -0.3270629418483787], [0.7328103492406425, 0.9189838967746059, 0.6371330446084791, -0.7187960413621977, 0.366416856375642, 0.9916605927110757, -1.041345255853858, -1.1734201514866307, 0.16420708080676266, 0.13072569206105455]], "output_weights": [[0.13274575772015804, -1.0121056214485127], [0.43742646495570486, 0.13233663611491997], [0.31252649578014186, -0.24364682732449627], [-0.3987922656631179, 0.652769309439945], [0.41064501671251513, -0.8095608190960741], [-0.16471140919986954, -1.362891641732443], [-1.1102106086347128, 0.12099802514565963], [-0.9506919458524522, 0.363558623791513], [-0.6162881897260473, -0.7315118744913928], [0.13107658604526093, -0.03142546291233267]]}